{"0_weights": [[0.11644087731838226, -0.04513052478432655, 0.12155111879110336, 0.2180815488100052, -0.34794625639915466, -0.46625256538391113, -0.23733608424663544, 0.10155650228261948, 0.5944549441337585, -0.11000670492649078, 0.4499168395996094, 0.25388967990875244, 0.47173216938972473, 0.549460232257843, -0.34527719020843506, 0.48504263162612915], [-0.3073139190673828, -0.22766923904418945, -0.5061250329017639, 0.22622676193714142, 0.6339830756187439, -0.26955944299697876, 0.24077826738357544, 0.40783458948135376, 0.3766050636768341, -0.1125304102897644, -0.18946309387683868, -0.20610515773296356, -0.2007431983947754, -0.4023818075656891, 0.1366644650697708, 0.11605554074048996], [0.16358622908592224, 0.03703869506716728, 0.4696844220161438, -0.20674902200698853, 0.8197893500328064, -0.2134149670600891, 0.010793165303766727, -0.408643513917923, -0.3630467355251312, -0.08184859901666641, 0.7873390913009644, -0.1814727634191513, 0.26710397005081177, -0.12100507318973541, 0.048762883991003036, -0.015022180043160915], [-0.2897217869758606, 0.4984464943408966, -0.028716865926980972, 0.2983454167842865, 0.0743931382894516, -0.6124194264411926, 0.09266363084316254, -0.45199882984161377, -0.46258264780044556, 0.27356308698654175, 0.2865827977657318, 0.24184013903141022, -0.16156356036663055, 0.1988796591758728, -0.15478515625, 0.41345348954200745], [0.07016618549823761, 0.143687441945076, -0.27427607774734497, -0.023939719423651695, 0.6737023591995239, 0.10887282341718674, -0.42446252703666687, 0.24090145528316498, 0.20033307373523712, 0.13442346453666687, -0.7275658845901489, 0.04625585675239563, 0.3302384912967682, -0.011229384690523148, 0.24949298799037933, -0.0472540408372879], [-0.14129146933555603, -0.2823508381843567, -0.374990850687027, -0.1730530560016632, -0.12004517018795013, -0.13777299225330353, 0.3067358434200287, 0.9151400327682495, -0.06543701887130737, -0.7736610174179077, -0.03726428002119064, -0.4413059651851654, 0.1932259500026703, 0.4490557014942169, -0.4309372901916504, 0.20262505114078522], [0.5544759631156921, 0.8363047242164612, -0.2572733759880066, 0.26260852813720703, -0.12332019209861755, 0.09007472544908524, 0.5893589854240417, 0.7617681622505188, -0.048622798174619675, -0.33762794733047485, -0.1295136958360672, -0.12345797568559647, 0.21442055702209473, 0.3414992690086365, 0.5072807669639587, 0.20361576974391937], [0.22153183817863464, -0.21387936174869537, -0.3807961642742157, -0.8256897330284119, -0.6537166833877563, 0.41617661714553833, 0.20413433015346527, -0.021542541682720184, -0.3106642961502075, 0.3044471740722656, 0.24991370737552643, 0.27434566617012024, 0.10805439203977585, 0.5637198686599731, -0.10221034288406372, -0.5105564594268799], [0.14848005771636963, -0.038668517023324966, -0.20415225625038147, -0.3487362265586853, -0.5667816400527954, 0.08137967437505722, -0.657917320728302, 0.11468186229467392, 0.19399237632751465, 0.3497906029224396, -0.3750769793987274, -0.10630097985267639, 0.1694384664297104, 0.43792885541915894, 0.5625767111778259, 0.03836695849895477], [0.4717946946620941, -0.029566867277026176, -0.08558225631713867, 0.04566405713558197, 0.37504735589027405, -0.5097507834434509, 0.48474058508872986, 0.48539912700653076, -0.10993273556232452, -0.18499256670475006, -0.44934606552124023, 0.33872881531715393, -0.584145188331604, 0.056387778371572495, 0.2814987003803253, -0.02837860770523548], [0.10765551030635834, -0.1357802152633667, -0.009959318675100803, -0.26503264904022217, -0.2368498146533966, -0.13469292223453522, 0.09146292507648468, 0.2506997287273407, 0.5109429955482483, 0.5733272433280945, 0.11628507077693939, 0.17495845258235931, 0.8275175094604492, -0.5182146430015564, 0.005469663999974728, 0.1807050257921219]], "1_weights": [[0.5334673523902893, 0.03453906998038292, 0.10314182937145233, -0.16420665383338928, -0.2917747497558594, 0.35033121705055237, 0.5027333498001099, -0.21832935512065887, -0.9432446360588074, -0.30959486961364746, 0.4549540579319, -0.22979341447353363, 0.017376989126205444, -0.26534152030944824, 0.24784472584724426, 0.7750042080879211], [0.47396320104599, 0.15725986659526825, 0.06333436071872711, 0.36598166823387146, -0.4665846526622772, 0.4774138629436493, 0.2693521976470947, -0.09803544729948044, 0.3880472183227539, -0.13570237159729004, 0.33944061398506165, -0.3647398352622986, 0.08837627619504929, -0.7041500806808472, -0.7918717265129089, -0.26383736729621887], [0.18265564739704132, -0.5765665769577026, -0.14833256602287292, -0.1811869591474533, -0.3681336045265198, -0.8900098204612732, 0.17686915397644043, -0.01738196238875389, -0.34383028745651245, -0.41017699241638184, -0.6940522789955139, -0.2531026303768158, -0.06305244565010071, -0.0037974566221237183, -0.0055775754153728485, -0.36961913108825684], [0.2857888340950012, 0.2530486285686493, 0.09198331087827682, 0.2427585870027542, 0.19068877398967743, -0.27832403779029846, -0.7037869095802307, -0.3553576171398163, -0.14356783032417297, 0.016137460246682167, -0.17499729990959167, 0.03895182907581329, 0.18285666406154633, -0.9026705622673035, 0.19965742528438568, -0.34769341349601746], [-0.24963143467903137, -0.29699161648750305, -0.015576074831187725, 0.7367792129516602, 0.03355908393859863, -0.045911192893981934, 0.08092444390058517, 0.2679210901260376, 0.021049141883850098, -0.09704618901014328, -0.44676870107650757, -0.2249823808670044, 0.4851463735103607, 0.0484020859003067, 0.20916172862052917, -0.011459434404969215], [-0.44139522314071655, 0.1526404470205307, -0.0999535396695137, -0.048996701836586, 0.4899338483810425, -0.5733641386032104, -0.45059552788734436, 0.6995304226875305, 0.16629710793495178, -0.33626824617385864, -0.21661290526390076, -0.3218334913253784, -0.0070960731245577335, 0.3997263014316559, -0.46227535605430603, -0.062199223786592484], [-0.7940829992294312, 0.5339652299880981, -0.13244664669036865, -0.09723542630672455, 0.4136131703853607, 0.329092413187027, 0.7842947840690613, -0.31149014830589294, 0.551618218421936, 0.1374000608921051, 0.15285015106201172, -0.4073263704776764, -0.13200345635414124, 0.019950298592448235, -0.4738893210887909, 0.6391552090644836], [-0.017180686816573143, 0.027073753997683525, 0.19708433747291565, 0.24135740101337433, 0.4860557019710541, 0.17281334102153778, -0.4717240631580353, 0.37952443957328796, -0.4324450194835663, 0.4496281147003174, 0.3332345485687256, -0.44853028655052185, -0.1340753734111786, 0.2661040723323822, -0.03545791655778885, -0.023546414449810982], [0.42605698108673096, 0.10528320074081421, 0.18780407309532166, 0.3092547357082367, 0.2121487259864807, 0.2799922823905945, -0.06219584867358208, -0.4968225359916687, -0.23047928512096405, 0.1520008146762848, 0.4243732988834381, -0.03023124858736992, -0.6120212078094482, -0.2564822733402252, 0.45893269777297974, 0.3336436152458191], [0.36709699034690857, 0.03322988748550415, -0.23997154831886292, -0.13111726939678192, 0.36073780059814453, 0.02986198663711548, 0.2177574634552002, -0.3629767894744873, 0.3033126890659332, -0.16299624741077423, -0.3945271670818329, 0.3647904694080353, -0.07342458516359329, 0.01829511672258377, -0.2765234112739563, 0.010601433925330639], [0.09859341382980347, 0.5748573541641235, -0.17157641053199768, -0.4173288345336914, 0.1395270824432373, 0.3282579183578491, 0.0061141191981732845, -0.1550835371017456, 0.42850515246391296, 0.4999971389770508, 0.017634719610214233, 0.719173789024353, -0.352907657623291, 0.19892358779907227, -0.06398190557956696, 0.4381023347377777], [-0.2573877274990082, -0.19519679248332977, 0.018155531957745552, 0.5837402939796448, 0.36013263463974, -0.6450626850128174, -0.33311256766319275, -0.37340596318244934, -0.038790155202150345, -0.20640252530574799, -0.009981009177863598, -0.6673057675361633, 0.783934473991394, -0.16450463235378265, 0.16551221907138824, -0.5141908526420593], [0.31515151262283325, 0.027711918577551842, 0.17500433325767517, 0.0026808460243046284, -0.21586360037326813, 0.30247482657432556, 0.37005364894866943, -0.12423987686634064, -0.2377960979938507, -0.23471114039421082, -0.09204486757516861, 0.08782634884119034, -0.437770277261734, 0.6840585470199585, 0.15248140692710876, 0.12554648518562317], [-0.38742879033088684, 0.4732513725757599, 0.19589927792549133, 0.08966942876577377, 0.03447689116001129, -0.47201937437057495, 0.37039366364479065, 0.030621180310845375, 0.43405163288116455, 0.2970725893974304, 0.20617589354515076, 0.43992093205451965, 0.13626091182231903, 0.008604881353676319, -0.20693126320838928, -0.065148264169693], [0.10231913626194, 0.026835130527615547, -0.01647174544632435, 0.3099839389324188, 0.13192325830459595, -0.14164285361766815, -0.2021322250366211, 0.24376732110977173, -0.3978024423122406, -0.28326818346977234, 0.16959504783153534, 0.04621153324842453, 0.4387913942337036, 0.2001810222864151, -0.06954844295978546, 0.2376035749912262], [0.18103466928005219, 0.04226177558302879, 0.37522104382514954, -0.099866583943367, -0.3546157479286194, 0.1813747137784958, -0.21982243657112122, -0.002337224083021283, 0.4345359802246094, 0.2101185917854309, -0.049701567739248276, -0.14489662647247314, -0.00382972345687449, -0.4294537901878357, -0.3322717845439911, -0.05262736603617668]], "2_weights": [[0.2565932273864746, 0.8972457647323608, 0.43468815088272095], [0.21216973662376404, 0.4153825342655182, 0.5418676733970642], [0.00380844809114933, 0.3712015450000763, -0.25209641456604004], [-0.27286460995674133, 0.14019568264484406, -0.38735783100128174], [0.2169496864080429, -0.16699697077274323, -0.07392866164445877], [0.2343175858259201, 0.8940315842628479, 0.2795892655849457], [0.1089051216840744, -0.20277462899684906, 0.3586668372154236], [-0.04383053630590439, -0.0920221135020256, -0.38293617963790894], [0.21499955654144287, 0.7571326494216919, 0.2814617455005646], [0.7644325494766235, 0.08687373250722885, 0.09440608322620392], [0.34258395433425903, 0.30691424012184143, 0.4970399737358093], [0.6474689245223999, 0.25895214080810547, -0.3118760883808136], [-0.44203394651412964, -0.5704346895217896, 0.007035629823803902], [-0.5406705737113953, -0.7625930309295654, -0.510014533996582], [0.5579569935798645, -0.3168398439884186, -0.05479016527533531], [0.3464186489582062, 0.734661340713501, 0.45130932331085205]], "0_bias": [0.02584291249513626, 0.013214553706347942, 0.2136068344116211, -0.014841243624687195, 0.03017538972198963, -0.02365630492568016, -0.031187348067760468, 0.14360657334327698, -0.03819652646780014, -0.08977951854467392, -0.005825790576636791, 0.03002268448472023, 0.05293598771095276, 0.07745762914419174, 0.046050794422626495, -0.002714871894568205], "1_bias": [-0.10912021994590759, -0.004891448654234409, -0.014108002185821533, 0.06458105891942978, 0.3067115843296051, -0.1950976550579071, -0.07921092212200165, 0.22019626200199127, 0.01608729176223278, 0.10684683918952942, -0.030697369948029518, 0.03551499545574188, 0.10673069953918457, 0.08558700233697891, 0.2700088918209076, 0.03734346106648445], "2_bias": [-0.05712467059493065, -0.07527978718280792, -0.1276862472295761],"obj_num": 2}