{"0_weights": [[0.4085931181907654, -0.4766027331352234, -0.9564708471298218, -0.0244766753166914, -0.11019563674926758, -0.7171792387962341, -0.004573717713356018, 0.1687433272600174, 0.7927832007408142, -0.5815635919570923, 0.651189923286438, 0.41917309165000916, 0.5051302909851074, 0.672859787940979, -0.21861962974071503, 0.4181967079639435], [-0.1403133124113083, -0.2952801585197449, -0.995928943157196, 0.42285892367362976, 0.40332040190696716, -1.2239718437194824, 1.0780352354049683, 0.36083975434303284, 0.21851788461208344, 0.3437080383300781, -0.4565815329551697, 0.02006404660642147, -0.28704118728637695, -0.2054811716079712, 0.16968035697937012, 0.08836500346660614], [0.17177121341228485, -0.24627187848091125, 0.33276763558387756, 0.024516670033335686, 0.8917521834373474, 0.07072236388921738, 0.10492592304944992, -0.0840502381324768, -0.3773404061794281, 0.284270316362381, 0.7260056138038635, -0.1475803256034851, 0.1519567370414734, -0.019281595945358276, -0.2802738547325134, -0.4836117625236511], [-0.32744207978248596, -0.15045395493507385, 0.19298046827316284, 0.40244027972221375, 0.2560980021953583, -0.15996809303760529, -1.1624351739883423, -0.2830488681793213, -0.813201367855072, 0.4718519449234009, 0.13754218816757202, 0.02157576195895672, -0.17167669534683228, 0.18981759250164032, 0.027360159903764725, 0.1604713648557663], [0.2980700731277466, 0.16775986552238464, -1.3007515668869019, -0.3047865927219391, 0.608802080154419, -0.07792472839355469, -0.2689918875694275, 0.18196652829647064, 0.008616027422249317, -0.08666462451219559, -0.7027639150619507, 0.03514333814382553, 0.0836784765124321, -0.05911345034837723, 0.10878091305494308, -0.23787443339824677], [-0.2066926807165146, -0.013751917518675327, -0.3145104944705963, -0.45395487546920776, -0.040385901927948, 0.050393179059028625, 0.19476178288459778, 0.6730760335922241, 0.045023489743471146, -1.124215006828308, 0.08705752342939377, -0.38714340329170227, 0.23179049789905548, 0.29963064193725586, -0.54742431640625, 0.19506028294563293], [0.3827986717224121, 0.34063485264778137, -0.32123345136642456, 0.19650471210479736, 0.03638072684407234, -0.4192745089530945, 0.37223026156425476, 0.8630759119987488, -0.21589036285877228, -0.29682138562202454, -0.2904570698738098, 0.36448872089385986, 0.7165607213973999, 0.4235796630382538, 0.5844742059707642, -0.015284046530723572], [0.06771291047334671, -0.33881884813308716, -0.10353980213403702, -0.18420936167240143, -0.5776267647743225, 0.15988197922706604, 0.012585056014358997, 0.006469015032052994, -0.007817906327545643, 0.6214832663536072, 0.16463269293308258, -0.03511570394039154, -0.1160338968038559, 0.6300976872444153, 0.14252737164497375, -0.4107312560081482], [-0.3690642714500427, 0.10892236977815628, -0.23670059442520142, 0.24427901208400726, -0.8309611082077026, 0.2613064646720886, -0.9215089082717896, -0.47812536358833313, 0.5124077200889587, 0.24264514446258545, -0.3648531436920166, -0.38902780413627625, -0.2628827691078186, 0.5342720746994019, 0.06384534388780594, 0.95224928855896], [0.7732842564582825, 0.2899094223976135, -0.9687567949295044, 1.3209975957870483, 1.1256822347640991, -1.194014310836792, -0.17934350669384003, 0.3758113980293274, -0.742775559425354, -0.3319706916809082, -1.0430989265441895, 0.6305851936340332, -0.7873451709747314, -0.9985941052436829, 0.9635924100875854, -0.132994145154953], [0.01954508014023304, -0.6185742020606995, -0.09966810047626495, 0.1840907335281372, -0.09680841118097305, -0.08319076895713806, -0.05733708664774895, 0.24228151142597198, -0.14459677040576935, 0.10786173492670059, 0.22068160772323608, 0.02140384539961815, 0.5344147682189941, -0.45489993691444397, 0.09245683252811432, 0.22313812375068665]], "1_weights": [[0.39181971549987793, 0.21695926785469055, -0.5460541844367981, -0.267998605966568, -0.368988573551178, -0.18966761231422424, -0.11962559819221497, -0.3116660714149475, 0.2683495283126831, -0.09099438041448593, 0.5844171047210693, 0.49646687507629395, -0.03612878918647766, -0.7717276215553284, 0.19888940453529358, 0.7606766819953918], [0.30664926767349243, 0.06614984571933746, -0.8802521824836731, 0.118467777967453, -0.40439534187316895, -0.010087420232594013, 0.21274790167808533, -0.46029096841812134, -0.05538788437843323, -0.4038584232330322, 0.3561939597129822, 0.12528081238269806, 0.26833468675613403, -0.9387871026992798, -0.4578181207180023, 0.06983839720487595], [-0.10149450600147247, -0.0386665016412735, 0.04992962256073952, -0.4735953211784363, -1.0114068984985352, 0.5015104413032532, -0.24049563705921173, -1.8218555450439453, -0.3221963942050934, 0.28460970520973206, 0.579551637172699, 0.5837946534156799, 0.5411919951438904, -0.3672659993171692, -0.2609081268310547, 0.2110826075077057], [0.1622552126646042, 0.25769713521003723, -9.266165733337402, -0.015029462985694408, 0.17431750893592834, -3.1784181594848633, -0.1481168270111084, -1.2805476188659668, -0.36139222979545593, 0.3133889436721802, 0.1043006032705307, 0.6777511835098267, 0.7613768577575684, -9.602367401123047, 0.02670159563422203, 0.18285349011421204], [-0.13001640141010284, -0.48262855410575867, 0.14060404896736145, 0.8311023712158203, 0.6807447671890259, 0.29754069447517395, 0.43849682807922363, 0.3752838969230652, -0.357162207365036, -0.2678535580635071, -0.47633713483810425, -0.5488810539245605, 0.3873550593852997, 0.30497419834136963, 0.09613655507564545, 0.030568918213248253], [-0.008310063742101192, 3.1308748722076416, -1.5397822856903076, -4.3169145584106445, -4.1384100914001465, -2.5865039825439453, -3.4052865505218506, -5.505460262298584, 4.47798490524292, 2.381479263305664, 2.2857956886291504, 1.7113875150680542, -2.5510003566741943, -3.0889434814453125, -0.2917940616607666, 2.819631576538086], [-0.5548606514930725, 0.46843573451042175, 0.007136978674679995, -0.10660868883132935, 0.34381499886512756, -0.05870768427848816, 0.21252374351024628, -0.2488110214471817, 1.14021897315979, -0.019575221464037895, 0.2300805300474167, 0.3898579180240631, -0.011176769621670246, 0.18737079203128815, -0.5536131858825684, 0.8118925094604492], [-0.0412021167576313, -0.0813978984951973, 0.362397700548172, 0.19951380789279938, 0.262216180562973, 0.20511624217033386, -0.3747422695159912, 0.21137292683124542, -0.858975887298584, 0.20080965757369995, 0.3050118088722229, -0.2759389281272888, -0.24222217500209808, 0.24125069379806519, -0.078548364341259, -0.2961704432964325], [0.30444416403770447, -0.39909628033638, 0.13892917335033417, 0.6652583479881287, -0.011328375898301601, 0.3669716417789459, 0.2776707708835602, -0.20808014273643494, -1.092858076095581, -1.0571529865264893, 0.07238869369029999, -0.3713260889053345, 0.056490059942007065, 0.45185330510139465, -0.28589439392089844, -0.10330621898174286], [0.4159446954727173, 0.19313883781433105, 0.15413062274456024, -0.14355818927288055, -1.3546383380889893, 1.2024043798446655, 0.24517208337783813, -1.3920716047286987, 0.7476382255554199, -0.2753559350967407, -0.24419358372688293, 0.07733042538166046, -0.6430357694625854, 0.008525414392352104, -0.28566500544548035, 0.17087532579898834], [-0.08999788016080856, 0.8343494534492493, 0.017702141776680946, -0.6363963484764099, 0.3757557272911072, -0.009893645532429218, -0.7217261791229248, 0.1856849193572998, 0.643852174282074, 0.7883496284484863, 0.4648146629333496, 0.6549625992774963, 0.03980496898293495, 0.08031882345676422, -0.08396614342927933, 0.539159893989563], [-0.010690398514270782, 0.4394053816795349, -0.4775504469871521, 0.04556388407945633, 0.42546167969703674, -1.1319351196289062, -0.28316161036491394, 0.13715574145317078, 1.4260953664779663, 0.49555569887161255, 0.4845820963382721, 0.46506863832473755, 0.3814285099506378, -0.856514036655426, -0.02469525672495365, 0.1590784341096878], [0.00489335972815752, -0.26666784286499023, 0.19863855838775635, 0.1456688493490219, 0.22926902770996094, 0.38471347093582153, 0.5270464420318604, -0.1575736254453659, -0.34664544463157654, -0.23991791903972626, -0.3377132713794708, -0.1568191647529602, -0.3915584981441498, 0.5597822070121765, 0.015574246644973755, 0.2804877460002899], [-0.493638813495636, 0.49341440200805664, 0.2584301233291626, 0.01309475302696228, -0.2205873727798462, -0.1419033259153366, 0.4298332631587982, 0.22123116254806519, 0.04969445616006851, 0.37893515825271606, 0.36451640725135803, 0.7008875012397766, 0.3323245644569397, 0.14561927318572998, -0.5270094871520996, -0.22073253989219666], [-0.0905877947807312, 0.21715354919433594, -2.2174148559570312, -0.011271967552602291, 0.8234731554985046, -0.5451247692108154, -0.7847716212272644, 0.3193003833293915, 0.08212275803089142, -0.7700368165969849, 0.28191956877708435, 0.23029683530330658, 0.09303213655948639, -3.745387077331543, 0.1666712462902069, 0.3133915364742279], [-0.024395084008574486, 0.6696218848228455, -0.8129306435585022, -0.8874112367630005, -0.9270974397659302, -0.10896139591932297, -0.6697937846183777, 0.0322975218296051, 1.730150580406189, 1.631980061531067, 0.5122149586677551, 0.3701959550380707, -0.09973539412021637, -0.9368975162506104, -0.31409335136413574, -0.5074502825737]], "2_weights": [[-0.1222209483385086, 0.1632291078567505, 0.15047581493854523], [0.47838664054870605, 0.660435140132904, 0.7333981394767761], [-0.9842153191566467, -0.8732941746711731, -1.4506700038909912], [-0.36105814576148987, -0.038929685950279236, -0.5167909264564514], [-0.4246238172054291, -0.5278719067573547, -0.5276782512664795], [-0.9571481943130493, -0.8911882638931274, -0.798251211643219], [-0.14104479551315308, -0.5172722935676575, -0.16673612594604492], [0.019281640648841858, -0.41235238313674927, -0.5452941656112671], [1.9281525611877441, 3.1554622650146484, 2.9228594303131104], [1.0879496335983276, 0.906200647354126, 0.9140089750289917], [0.5285241603851318, 0.4214088022708893, 0.7358781695365906], [0.6917721033096313, 0.595848798751831, -0.06026476249098778], [0.34292149543762207, -0.5683824419975281, -0.04737576097249985], [-1.420333743095398, -1.5223822593688965, -1.0521786212921143], [0.2626940906047821, 0.07704930007457733, 0.22563977539539337], [0.7787832021713257, 0.7444771528244019, 0.8003277778625488]], "0_bias": [-0.06127135828137398, -0.05120978131890297, 0.21889351308345795, -0.07231850922107697, 0.03441210463643074, -0.16892507672309875, 0.09102927893400192, 0.0019105919636785984, 0.08296052366495132, 0.2522578239440918, 0.23306980729103088, -0.12670817971229553, 0.028653336688876152, -0.05718198046088219, -0.10627514868974686, -0.05216861888766289], "1_bias": [-0.05654488876461983, 0.0814877599477768, -0.05197564885020256, 0.05922389030456543, 0.05874805897474289, 0.1981126219034195, -0.036396607756614685, -0.07685290277004242, 0.030850915238261223, 0.07544289529323578, 0.14656725525856018, -0.10844442993402481, -0.30218833684921265, 0.08465820550918579, -0.026744764298200607, 0.14915432035923004], "2_bias": [-0.21052740514278412, 0.058980464935302734, 0.0704369768500328],"obj_num": 4}